Language model created by QuickLM on Thu Aug  6 21:44:48 EDT 2020
Copyright (c) 1996-2010 Carnegie Mellon University and Alexander I. Rudnicky

The model is in standard ARPA format, designed by Doug Paul while he was at MITRE.

The code that was used to produce this language model is available in Open Source.
Please visit http://www.speech.cs.cmu.edu/tools/ for more information

The (fixed) discount mass is 0.5. The backoffs are computed using the ratio method.
This model based on a corpus of 8 sentences and 30 words

\data\
ngram 1=30
ngram 2=38
ngram 3=32

\1-grams:
-1.0969 </s> -0.3010
-1.0969 <s> -0.2648
-2.0000 AND -0.2967
-2.0000 BEDSIDE -0.2967
-2.0000 BEST -0.2967
-2.0000 BETTER -0.2967
-2.0000 FAIR -0.2967
-2.0000 FOLLOWING -0.2967
-2.0000 FUCK -0.2967
-2.0000 HELLO -0.2648
-1.6990 IS -0.2833
-2.0000 KNOWS -0.2967
-2.0000 LAMP -0.2648
-2.0000 LIKE -0.2967
-2.0000 ME -0.2648
-2.0000 MONITOR -0.2648
-2.0000 NO -0.2967
-2.0000 OFF -0.2833
-2.0000 ON -0.2833
-2.0000 ONE -0.2967
-2.0000 SEAS -0.2648
-2.0000 SMARTPHONE -0.2648
-2.0000 THAN -0.2967
-1.3979 THE -0.2833
-2.0000 TODAY -0.2648
-2.0000 TRUMP -0.2648
-1.6990 TURN -0.2923
-2.0000 WEATHER -0.2967
-1.6990 WHAT -0.2923
-2.0000 WINDS -0.2967

\2-grams:
-1.2041 <s> FAIR 0.0000
-1.2041 <s> FUCK 0.0000
-1.2041 <s> HELLO 0.0000
-1.2041 <s> NO 0.0000
-0.9031 <s> TURN 0.0000
-0.9031 <s> WHAT 0.0000
-0.3010 AND FOLLOWING 0.0000
-0.3010 BEDSIDE LAMP 0.0000
-0.3010 BEST SMARTPHONE 0.0000
-0.3010 BETTER THAN 0.0000
-0.3010 FAIR WINDS 0.0000
-0.3010 FOLLOWING SEAS 0.0000
-0.3010 FUCK TRUMP 0.0000
-0.3010 HELLO </s> -0.3010
-0.3010 IS THE -0.1761
-0.3010 KNOWS BETTER 0.0000
-0.3010 LAMP </s> -0.3010
-0.3010 LIKE TODAY 0.0000
-0.3010 ME </s> -0.3010
-0.3010 MONITOR </s> -0.3010
-0.3010 NO ONE 0.0000
-0.3010 OFF THE -0.2430
-0.3010 ON THE -0.2430
-0.3010 ONE KNOWS 0.0000
-0.3010 SEAS </s> -0.3010
-0.3010 SMARTPHONE </s> -0.3010
-0.3010 THAN ME 0.0000
-0.9031 THE BEDSIDE 0.0000
-0.9031 THE BEST 0.0000
-0.9031 THE MONITOR 0.0000
-0.9031 THE WEATHER 0.0000
-0.3010 TODAY </s> -0.3010
-0.3010 TRUMP </s> -0.3010
-0.6021 TURN OFF 0.0000
-0.6021 TURN ON 0.0000
-0.3010 WEATHER LIKE 0.0000
-0.3010 WHAT IS 0.0000
-0.3010 WINDS AND 0.0000

\3-grams:
-0.3010 <s> FAIR WINDS
-0.3010 <s> FUCK TRUMP
-0.3010 <s> HELLO </s>
-0.3010 <s> NO ONE
-0.6021 <s> TURN OFF
-0.6021 <s> TURN ON
-0.3010 <s> WHAT IS
-0.3010 AND FOLLOWING SEAS
-0.3010 BEDSIDE LAMP </s>
-0.3010 BEST SMARTPHONE </s>
-0.3010 BETTER THAN ME
-0.3010 FAIR WINDS AND
-0.3010 FOLLOWING SEAS </s>
-0.3010 FUCK TRUMP </s>
-0.6021 IS THE BEST
-0.6021 IS THE WEATHER
-0.3010 KNOWS BETTER THAN
-0.3010 LIKE TODAY </s>
-0.3010 NO ONE KNOWS
-0.3010 OFF THE BEDSIDE
-0.3010 ON THE MONITOR
-0.3010 ONE KNOWS BETTER
-0.3010 THAN ME </s>
-0.3010 THE BEDSIDE LAMP
-0.3010 THE BEST SMARTPHONE
-0.3010 THE MONITOR </s>
-0.3010 THE WEATHER LIKE
-0.3010 TURN OFF THE
-0.3010 TURN ON THE
-0.3010 WEATHER LIKE TODAY
-0.3010 WHAT IS THE
-0.3010 WINDS AND FOLLOWING

\end\
